digraph Tree {
node [shape=box, fontname="helvetica"] ;
edge [fontname="helvetica"] ;
0 [label="x[4] <= 0.5\ngini = 0.415\nsamples = 384\nvalue = [113, 271]"] ;
1 [label="x[0] <= 28124.5\ngini = 0.215\nsamples = 57\nvalue = [50, 7]"] ;
0 -> 1 [labeldistance=2.5, labelangle=45, headlabel="True"] ;
2 [label="x[0] <= 2137.5\ngini = 0.191\nsamples = 56\nvalue = [50, 6]"] ;
1 -> 2 ;
3 [label="x[13] <= 0.5\ngini = 0.5\nsamples = 2\nvalue = [1, 1]"] ;
2 -> 3 ;
4 [label="gini = 0.0\nsamples = 1\nvalue = [1, 0]"] ;
3 -> 4 ;
5 [label="gini = 0.0\nsamples = 1\nvalue = [0, 1]"] ;
3 -> 5 ;
6 [label="x[0] <= 4316.5\ngini = 0.168\nsamples = 54\nvalue = [49, 5]"] ;
2 -> 6 ;
7 [label="x[3] <= 240.0\ngini = 0.059\nsamples = 33\nvalue = [32, 1]"] ;
6 -> 7 ;
8 [label="x[0] <= 2546.0\ngini = 0.278\nsamples = 6\nvalue = [5, 1]"] ;
7 -> 8 ;
9 [label="gini = 0.0\nsamples = 1\nvalue = [0, 1]"] ;
8 -> 9 ;
10 [label="gini = 0.0\nsamples = 5\nvalue = [5, 0]"] ;
8 -> 10 ;
11 [label="gini = 0.0\nsamples = 27\nvalue = [27, 0]"] ;
7 -> 11 ;
12 [label="x[0] <= 5392.5\ngini = 0.308\nsamples = 21\nvalue = [17, 4]"] ;
6 -> 12 ;
13 [label="x[5] <= 0.5\ngini = 0.444\nsamples = 6\nvalue = [2, 4]"] ;
12 -> 13 ;
14 [label="gini = 0.0\nsamples = 4\nvalue = [0, 4]"] ;
13 -> 14 ;
15 [label="gini = 0.0\nsamples = 2\nvalue = [2, 0]"] ;
13 -> 15 ;
16 [label="gini = 0.0\nsamples = 15\nvalue = [15, 0]"] ;
12 -> 16 ;
17 [label="gini = 0.0\nsamples = 1\nvalue = [0, 1]"] ;
1 -> 17 ;
18 [label="x[0] <= 1490.0\ngini = 0.311\nsamples = 327\nvalue = [63, 264]"] ;
0 -> 18 [labeldistance=2.5, labelangle=-45, headlabel="False"] ;
19 [label="gini = 0.0\nsamples = 3\nvalue = [3, 0]"] ;
18 -> 19 ;
20 [label="x[2] <= 302.0\ngini = 0.302\nsamples = 324\nvalue = [60, 264]"] ;
18 -> 20 ;
21 [label="x[3] <= 420.0\ngini = 0.283\nsamples = 310\nvalue = [53, 257]"] ;
20 -> 21 ;
22 [label="x[18] <= 0.5\ngini = 0.274\nsamples = 305\nvalue = [50, 255]"] ;
21 -> 22 ;
23 [label="x[1] <= 13605.0\ngini = 0.335\nsamples = 174\nvalue = [37, 137]"] ;
22 -> 23 ;
24 [label="x[0] <= 6391.5\ngini = 0.324\nsamples = 172\nvalue = [35, 137]"] ;
23 -> 24 ;
25 [label="x[0] <= 6016.5\ngini = 0.362\nsamples = 135\nvalue = [32, 103]"] ;
24 -> 25 ;
26 [label="x[0] <= 3554.0\ngini = 0.336\nsamples = 131\nvalue = [28, 103]"] ;
25 -> 26 ;
27 [label="x[1] <= 618.0\ngini = 0.242\nsamples = 71\nvalue = [10, 61]"] ;
26 -> 27 ;
28 [label="x[0] <= 2457.0\ngini = 0.434\nsamples = 22\nvalue = [7, 15]"] ;
27 -> 28 ;
29 [label="gini = 0.0\nsamples = 3\nvalue = [3, 0]"] ;
28 -> 29 ;
30 [label="x[2] <= 136.5\ngini = 0.332\nsamples = 19\nvalue = [4, 15]"] ;
28 -> 30 ;
31 [label="x[1] <= 498.5\ngini = 0.219\nsamples = 16\nvalue = [2, 14]"] ;
30 -> 31 ;
32 [label="x[0] <= 3163.0\ngini = 0.124\nsamples = 15\nvalue = [1, 14]"] ;
31 -> 32 ;
33 [label="gini = 0.0\nsamples = 10\nvalue = [0, 10]"] ;
32 -> 33 ;
34 [label="x[0] <= 3202.0\ngini = 0.32\nsamples = 5\nvalue = [1, 4]"] ;
32 -> 34 ;
35 [label="gini = 0.0\nsamples = 1\nvalue = [1, 0]"] ;
34 -> 35 ;
36 [label="gini = 0.0\nsamples = 4\nvalue = [0, 4]"] ;
34 -> 36 ;
37 [label="gini = 0.0\nsamples = 1\nvalue = [1, 0]"] ;
31 -> 37 ;
38 [label="x[2] <= 212.5\ngini = 0.444\nsamples = 3\nvalue = [2, 1]"] ;
30 -> 38 ;
39 [label="gini = 0.0\nsamples = 2\nvalue = [2, 0]"] ;
38 -> 39 ;
40 [label="gini = 0.0\nsamples = 1\nvalue = [0, 1]"] ;
38 -> 40 ;
41 [label="x[0] <= 2029.5\ngini = 0.115\nsamples = 49\nvalue = [3, 46]"] ;
27 -> 41 ;
42 [label="x[1] <= 2638.0\ngini = 0.375\nsamples = 8\nvalue = [2, 6]"] ;
41 -> 42 ;
43 [label="gini = 0.0\nsamples = 6\nvalue = [0, 6]"] ;
42 -> 43 ;
44 [label="gini = 0.0\nsamples = 2\nvalue = [2, 0]"] ;
42 -> 44 ;
45 [label="x[0] <= 3361.5\ngini = 0.048\nsamples = 41\nvalue = [1, 40]"] ;
41 -> 45 ;
46 [label="gini = 0.0\nsamples = 34\nvalue = [0, 34]"] ;
45 -> 46 ;
47 [label="x[0] <= 3382.5\ngini = 0.245\nsamples = 7\nvalue = [1, 6]"] ;
45 -> 47 ;
48 [label="gini = 0.0\nsamples = 1\nvalue = [1, 0]"] ;
47 -> 48 ;
49 [label="gini = 0.0\nsamples = 6\nvalue = [0, 6]"] ;
47 -> 49 ;
50 [label="x[2] <= 114.5\ngini = 0.42\nsamples = 60\nvalue = [18, 42]"] ;
26 -> 50 ;
51 [label="x[2] <= 61.0\ngini = 0.5\nsamples = 22\nvalue = [11, 11]"] ;
50 -> 51 ;
52 [label="gini = 0.0\nsamples = 4\nvalue = [0, 4]"] ;
51 -> 52 ;
53 [label="x[2] <= 97.0\ngini = 0.475\nsamples = 18\nvalue = [11, 7]"] ;
51 -> 53 ;
54 [label="gini = 0.0\nsamples = 5\nvalue = [5, 0]"] ;
53 -> 54 ;
55 [label="x[0] <= 4307.0\ngini = 0.497\nsamples = 13\nvalue = [6, 7]"] ;
53 -> 55 ;
56 [label="x[0] <= 3644.5\ngini = 0.278\nsamples = 6\nvalue = [1, 5]"] ;
55 -> 56 ;
57 [label="gini = 0.0\nsamples = 1\nvalue = [1, 0]"] ;
56 -> 57 ;
58 [label="gini = 0.0\nsamples = 5\nvalue = [0, 5]"] ;
56 -> 58 ;
59 [label="x[0] <= 4617.5\ngini = 0.408\nsamples = 7\nvalue = [5, 2]"] ;
55 -> 59 ;
60 [label="gini = 0.0\nsamples = 4\nvalue = [4, 0]"] ;
59 -> 60 ;
61 [label="x[10] <= 0.5\ngini = 0.444\nsamples = 3\nvalue = [1, 2]"] ;
59 -> 61 ;
62 [label="gini = 0.0\nsamples = 2\nvalue = [0, 2]"] ;
61 -> 62 ;
63 [label="gini = 0.0\nsamples = 1\nvalue = [1, 0]"] ;
61 -> 63 ;
64 [label="x[2] <= 171.0\ngini = 0.301\nsamples = 38\nvalue = [7, 31]"] ;
50 -> 64 ;
65 [label="x[9] <= 0.5\ngini = 0.18\nsamples = 30\nvalue = [3, 27]"] ;
64 -> 65 ;
66 [label="x[0] <= 4641.0\ngini = 0.337\nsamples = 14\nvalue = [3, 11]"] ;
65 -> 66 ;
67 [label="x[0] <= 4568.5\ngini = 0.469\nsamples = 8\nvalue = [3, 5]"] ;
66 -> 67 ;
68 [label="x[0] <= 4244.0\ngini = 0.278\nsamples = 6\nvalue = [1, 5]"] ;
67 -> 68 ;
69 [label="x[14] <= 0.5\ngini = 0.5\nsamples = 2\nvalue = [1, 1]"] ;
68 -> 69 ;
70 [label="gini = 0.0\nsamples = 1\nvalue = [0, 1]"] ;
69 -> 70 ;
71 [label="gini = 0.0\nsamples = 1\nvalue = [1, 0]"] ;
69 -> 71 ;
72 [label="gini = 0.0\nsamples = 4\nvalue = [0, 4]"] ;
68 -> 72 ;
73 [label="gini = 0.0\nsamples = 2\nvalue = [2, 0]"] ;
67 -> 73 ;
74 [label="gini = 0.0\nsamples = 6\nvalue = [0, 6]"] ;
66 -> 74 ;
75 [label="gini = 0.0\nsamples = 16\nvalue = [0, 16]"] ;
65 -> 75 ;
76 [label="x[2] <= 180.0\ngini = 0.5\nsamples = 8\nvalue = [4, 4]"] ;
64 -> 76 ;
77 [label="gini = 0.0\nsamples = 3\nvalue = [3, 0]"] ;
76 -> 77 ;
78 [label="x[11] <= 0.5\ngini = 0.32\nsamples = 5\nvalue = [1, 4]"] ;
76 -> 78 ;
79 [label="gini = 0.0\nsamples = 3\nvalue = [0, 3]"] ;
78 -> 79 ;
80 [label="x[19] <= 0.5\ngini = 0.5\nsamples = 2\nvalue = [1, 1]"] ;
78 -> 80 ;
81 [label="gini = 0.0\nsamples = 1\nvalue = [1, 0]"] ;
80 -> 81 ;
82 [label="gini = 0.0\nsamples = 1\nvalue = [0, 1]"] ;
80 -> 82 ;
83 [label="gini = 0.0\nsamples = 4\nvalue = [4, 0]"] ;
25 -> 83 ;
84 [label="x[8] <= 0.5\ngini = 0.149\nsamples = 37\nvalue = [3, 34]"] ;
24 -> 84 ;
85 [label="x[2] <= 227.0\ngini = 0.375\nsamples = 12\nvalue = [3, 9]"] ;
84 -> 85 ;
86 [label="x[15] <= 0.5\ngini = 0.298\nsamples = 11\nvalue = [2, 9]"] ;
85 -> 86 ;
87 [label="x[0] <= 7304.0\ngini = 0.48\nsamples = 5\nvalue = [2, 3]"] ;
86 -> 87 ;
88 [label="gini = 0.0\nsamples = 3\nvalue = [0, 3]"] ;
87 -> 88 ;
89 [label="gini = 0.0\nsamples = 2\nvalue = [2, 0]"] ;
87 -> 89 ;
90 [label="gini = 0.0\nsamples = 6\nvalue = [0, 6]"] ;
86 -> 90 ;
91 [label="gini = 0.0\nsamples = 1\nvalue = [1, 0]"] ;
85 -> 91 ;
92 [label="gini = 0.0\nsamples = 25\nvalue = [0, 25]"] ;
84 -> 92 ;
93 [label="gini = 0.0\nsamples = 2\nvalue = [2, 0]"] ;
23 -> 93 ;
94 [label="x[3] <= 60.0\ngini = 0.179\nsamples = 131\nvalue = [13, 118]"] ;
22 -> 94 ;
95 [label="gini = 0.0\nsamples = 1\nvalue = [1, 0]"] ;
94 -> 95 ;
96 [label="x[8] <= 0.5\ngini = 0.168\nsamples = 130\nvalue = [12, 118]"] ;
94 -> 96 ;
97 [label="x[10] <= 0.5\ngini = 0.268\nsamples = 44\nvalue = [7, 37]"] ;
96 -> 97 ;
98 [label="x[2] <= 157.5\ngini = 0.224\nsamples = 39\nvalue = [5, 34]"] ;
97 -> 98 ;
99 [label="x[3] <= 330.0\ngini = 0.161\nsamples = 34\nvalue = [3, 31]"] ;
98 -> 99 ;
100 [label="x[15] <= 0.5\ngini = 0.5\nsamples = 2\nvalue = [1, 1]"] ;
99 -> 100 ;
101 [label="gini = 0.0\nsamples = 1\nvalue = [1, 0]"] ;
100 -> 101 ;
102 [label="gini = 0.0\nsamples = 1\nvalue = [0, 1]"] ;
100 -> 102 ;
103 [label="x[2] <= 111.5\ngini = 0.117\nsamples = 32\nvalue = [2, 30]"] ;
99 -> 103 ;
104 [label="gini = 0.0\nsamples = 17\nvalue = [0, 17]"] ;
103 -> 104 ;
105 [label="x[2] <= 113.5\ngini = 0.231\nsamples = 15\nvalue = [2, 13]"] ;
103 -> 105 ;
106 [label="gini = 0.0\nsamples = 1\nvalue = [1, 0]"] ;
105 -> 106 ;
107 [label="x[0] <= 3709.0\ngini = 0.133\nsamples = 14\nvalue = [1, 13]"] ;
105 -> 107 ;
108 [label="x[0] <= 3252.0\ngini = 0.32\nsamples = 5\nvalue = [1, 4]"] ;
107 -> 108 ;
109 [label="gini = 0.0\nsamples = 4\nvalue = [0, 4]"] ;
108 -> 109 ;
110 [label="gini = 0.0\nsamples = 1\nvalue = [1, 0]"] ;
108 -> 110 ;
111 [label="gini = 0.0\nsamples = 9\nvalue = [0, 9]"] ;
107 -> 111 ;
112 [label="x[2] <= 205.0\ngini = 0.48\nsamples = 5\nvalue = [2, 3]"] ;
98 -> 112 ;
113 [label="gini = 0.0\nsamples = 2\nvalue = [2, 0]"] ;
112 -> 113 ;
114 [label="gini = 0.0\nsamples = 3\nvalue = [0, 3]"] ;
112 -> 114 ;
115 [label="x[2] <= 87.5\ngini = 0.48\nsamples = 5\nvalue = [2, 3]"] ;
97 -> 115 ;
116 [label="gini = 0.0\nsamples = 2\nvalue = [2, 0]"] ;
115 -> 116 ;
117 [label="gini = 0.0\nsamples = 3\nvalue = [0, 3]"] ;
115 -> 117 ;
118 [label="x[1] <= 6160.0\ngini = 0.11\nsamples = 86\nvalue = [5, 81]"] ;
96 -> 118 ;
119 [label="x[2] <= 256.5\ngini = 0.091\nsamples = 84\nvalue = [4, 80]"] ;
118 -> 119 ;
120 [label="x[0] <= 6365.5\ngini = 0.07\nsamples = 82\nvalue = [3, 79]"] ;
119 -> 120 ;
121 [label="x[10] <= 0.5\ngini = 0.028\nsamples = 71\nvalue = [1, 70]"] ;
120 -> 121 ;
122 [label="gini = 0.0\nsamples = 59\nvalue = [0, 59]"] ;
121 -> 122 ;
123 [label="x[1] <= 2541.5\ngini = 0.153\nsamples = 12\nvalue = [1, 11]"] ;
121 -> 123 ;
124 [label="gini = 0.0\nsamples = 10\nvalue = [0, 10]"] ;
123 -> 124 ;
125 [label="x[5] <= 0.5\ngini = 0.5\nsamples = 2\nvalue = [1, 1]"] ;
123 -> 125 ;
126 [label="gini = 0.0\nsamples = 1\nvalue = [1, 0]"] ;
125 -> 126 ;
127 [label="gini = 0.0\nsamples = 1\nvalue = [0, 1]"] ;
125 -> 127 ;
128 [label="x[2] <= 175.5\ngini = 0.298\nsamples = 11\nvalue = [2, 9]"] ;
120 -> 128 ;
129 [label="x[10] <= 0.5\ngini = 0.444\nsamples = 3\nvalue = [2, 1]"] ;
128 -> 129 ;
130 [label="gini = 0.0\nsamples = 2\nvalue = [2, 0]"] ;
129 -> 130 ;
131 [label="gini = 0.0\nsamples = 1\nvalue = [0, 1]"] ;
129 -> 131 ;
132 [label="gini = 0.0\nsamples = 8\nvalue = [0, 8]"] ;
128 -> 132 ;
133 [label="x[9] <= 0.5\ngini = 0.5\nsamples = 2\nvalue = [1, 1]"] ;
119 -> 133 ;
134 [label="gini = 0.0\nsamples = 1\nvalue = [0, 1]"] ;
133 -> 134 ;
135 [label="gini = 0.0\nsamples = 1\nvalue = [1, 0]"] ;
133 -> 135 ;
136 [label="x[0] <= 2395.5\ngini = 0.5\nsamples = 2\nvalue = [1, 1]"] ;
118 -> 136 ;
137 [label="gini = 0.0\nsamples = 1\nvalue = [1, 0]"] ;
136 -> 137 ;
138 [label="gini = 0.0\nsamples = 1\nvalue = [0, 1]"] ;
136 -> 138 ;
139 [label="x[9] <= 0.5\ngini = 0.48\nsamples = 5\nvalue = [3, 2]"] ;
21 -> 139 ;
140 [label="x[2] <= 155.0\ngini = 0.444\nsamples = 3\nvalue = [1, 2]"] ;
139 -> 140 ;
141 [label="gini = 0.0\nsamples = 2\nvalue = [0, 2]"] ;
140 -> 141 ;
142 [label="gini = 0.0\nsamples = 1\nvalue = [1, 0]"] ;
140 -> 142 ;
143 [label="gini = 0.0\nsamples = 2\nvalue = [2, 0]"] ;
139 -> 143 ;
144 [label="x[9] <= 0.5\ngini = 0.5\nsamples = 14\nvalue = [7, 7]"] ;
20 -> 144 ;
145 [label="x[7] <= 0.5\ngini = 0.346\nsamples = 9\nvalue = [2, 7]"] ;
144 -> 145 ;
146 [label="x[2] <= 498.0\ngini = 0.219\nsamples = 8\nvalue = [1, 7]"] ;
145 -> 146 ;
147 [label="gini = 0.0\nsamples = 6\nvalue = [0, 6]"] ;
146 -> 147 ;
148 [label="x[18] <= 0.5\ngini = 0.5\nsamples = 2\nvalue = [1, 1]"] ;
146 -> 148 ;
149 [label="gini = 0.0\nsamples = 1\nvalue = [1, 0]"] ;
148 -> 149 ;
150 [label="gini = 0.0\nsamples = 1\nvalue = [0, 1]"] ;
148 -> 150 ;
151 [label="gini = 0.0\nsamples = 1\nvalue = [1, 0]"] ;
145 -> 151 ;
152 [label="gini = 0.0\nsamples = 5\nvalue = [5, 0]"] ;
144 -> 152 ;
}